<?xml version="1.0"?>
<opencv_storage>
<stage9>
  <maxWeakCount>6</maxWeakCount>
  <stageThreshold>-2.0418250560760498e+00</stageThreshold>
  <weakClassifiers>
    <_>
      <internalNodes>
        0 -1 10751 -4194317 -536882177 -67127297 -1537 -4456469 -1025
        -41157637 -544482817</internalNodes>
      <leafValues>
        -8.6645597219467163e-01 6.1613351106643677e-01</leafValues></_>
    <_>
      <internalNodes>
        0 -1 25730 -201328133 -1342447687 2147479035 -8422499 -268698625
        -1879184197 1561327103 -536887297</internalNodes>
      <leafValues>
        -7.1639847755432129e-01 5.4128611087799072e-01</leafValues></_>
    <_>
      <internalNodes>
        0 -1 17058 -2097956 2132752904 -2360321 -537919489 2139863803
        -100944994 -21201667 991506074</internalNodes>
      <leafValues>
        -7.7179032564163208e-01 3.9090535044670105e-01</leafValues></_>
    <_>
      <internalNodes>
        0 -1 16534 1566113517 -147914882 525577795 -1073742850
        1469718270 -361797 2145326015 -17</internalNodes>
      <leafValues>
        -6.5257072448730469e-01 4.7731807827949524e-01</leafValues></_>
    <_>
      <internalNodes>
        0 -1 2548 -201334865 -354418986 -577900989 -68498742 -612373041
        583982775 1732246902 1962931711</internalNodes>
      <leafValues>
        -6.5409129858016968e-01 4.8096093535423279e-01</leafValues></_>
    <_>
      <internalNodes>
        0 -1 20143 -1280280459 -4383623 -618807553 -536922629
        -1090601217 -1380267053 -32637862 -1392769217</internalNodes>
      <leafValues>
        -6.3389933109283447e-01 4.5678603649139404e-01</leafValues></_></weakClassifiers></stage9>
</opencv_storage>
