<?xml version="1.0"?>
<opencv_storage>
<stage14>
  <maxWeakCount>6</maxWeakCount>
  <stageThreshold>-1.9635008573532104e+00</stageThreshold>
  <weakClassifiers>
    <_>
      <internalNodes>
        0 -1 3993 -704954369 -538968066 1893725695 -71352974 -1240809745
        -69236786 -1099171329 -16778497</internalNodes>
      <leafValues>
        -8.3621686697006226e-01 6.5485364198684692e-01</leafValues></_>
    <_>
      <internalNodes>
        0 -1 25091 -131330 -443713 533448956 -6291713 -1076893329
        688382001 1602608303 -536870913</internalNodes>
      <leafValues>
        -7.2120648622512817e-01 5.1393449306488037e-01</leafValues></_>
    <_>
      <internalNodes>
        0 -1 23594 -103548495 -273116800 -575578123 -142748575
        -1149182981 -876885765 -1525550593 -994387269</internalNodes>
      <leafValues>
        -6.0715776681900024e-01 4.6122011542320251e-01</leafValues></_>
    <_>
      <internalNodes>
        0 -1 9254 2012643071 -67520033 1397899263 863231967 -11560230
        2104103577 -8392897 1735096634</internalNodes>
      <leafValues>
        -5.1469886302947998e-01 4.9656039476394653e-01</leafValues></_>
    <_>
      <internalNodes>
        0 -1 24630 2145106855 -1366093321 -2095726194 -823181613
        -217515201 2068030458 -67896601 -16986699</internalNodes>
      <leafValues>
        -6.4009511470794678e-01 4.2206576466560364e-01</leafValues></_>
    <_>
      <internalNodes>
        0 -1 15737 -1881220706 -302295332 -42510625 805163423 -662045828
        -18821363 -628557064 410812279</internalNodes>
      <leafValues>
        -8.1343823671340942e-01 3.4461492300033569e-01</leafValues></_></weakClassifiers></stage14>
</opencv_storage>
