<?xml version="1.0"?>
<opencv_storage>
<stage15>
  <maxWeakCount>6</maxWeakCount>
  <stageThreshold>-2.0208189487457275e+00</stageThreshold>
  <weakClassifiers>
    <_>
      <internalNodes>
        0 -1 1461 -38535205 -91942566 -53266433 -77397797 -344741473
        -1416919917 -98315285 -18903922</internalNodes>
      <leafValues>
        -8.4525662660598755e-01 6.2536871433258057e-01</leafValues></_>
    <_>
      <internalNodes>
        0 -1 12299 -41157341 -191002409 1090643022 -373321049
        -1584673025 -519462693 -1962155425 -811611713</internalNodes>
      <leafValues>
        -6.8103885650634766e-01 6.1228537559509277e-01</leafValues></_>
    <_>
      <internalNodes>
        0 -1 9158 -15668994 -827834012 -1660704485 -718438395 -942898458
        -626290550 -277786017 -105919679</internalNodes>
      <leafValues>
        -5.8634954690933228e-01 4.5770326256752014e-01</leafValues></_>
    <_>
      <internalNodes>
        0 -1 27043 -1218446469 -1481979832 1160496006 1542844545
        898855267 579715460 1187168517 -908070773</internalNodes>
      <leafValues>
        -6.0229587554931641e-01 4.7117087244987488e-01</leafValues></_>
    <_>
      <internalNodes>
        0 -1 25110 -239693601 -1550163753 -721381998 -424716265
        1367353619 -217546743 -1167862015 -157750837</internalNodes>
      <leafValues>
        -6.7693990468978882e-01 3.9272066950798035e-01</leafValues></_>
    <_>
      <internalNodes>
        0 -1 1449 1978831607 -757265429 809615422 -1800957799 1493736031
        2133459054 -781071617 1869304492</internalNodes>
      <leafValues>
        -7.7206540107727051e-01 3.2400637865066528e-01</leafValues></_></weakClassifiers></stage15>
</opencv_storage>
