<?xml version="1.0"?>
<opencv_storage>
<stage8>
  <maxWeakCount>6</maxWeakCount>
  <stageThreshold>-1.8349589109420776e+00</stageThreshold>
  <weakClassifiers>
    <_>
      <internalNodes>
        0 -1 390088 -174063617 -67108913 -134753801 -69730465 -67372033
        -138413081 -201589765 -3145761</internalNodes>
      <leafValues>
        -8.2842123508453369e-01 7.7834612131118774e-01</leafValues></_>
    <_>
      <internalNodes>
        0 -1 85419 -289406977 -3145805 -52438185 -6291625 -1358955521
        -117466729 -872415489 -704645641</internalNodes>
      <leafValues>
        -6.8178415298461914e-01 6.1469316482543945e-01</leafValues></_>
    <_>
      <internalNodes>
        0 -1 7315 -67110053 -67372117 -48498318 -9438209 -293610502
        1936937906 2071985518 2004327375</internalNodes>
      <leafValues>
        -7.2994196414947510e-01 4.5554503798484802e-01</leafValues></_>
    <_>
      <internalNodes>
        0 -1 384017 -1610770179 -1784689231 536829365 -671361793
        -1073758785 -1617363045 536828415 268393983</internalNodes>
      <leafValues>
        -7.2837114334106445e-01 4.8700910806655884e-01</leafValues></_>
    <_>
      <internalNodes>
        0 -1 258119 -4390925 -134774785 -84213761 1060863871 -2174978
        -537165827 -327681 -1078322694</internalNodes>
      <leafValues>
        -5.0314378738403320e-01 6.8173748254776001e-01</leafValues></_>
    <_>
      <internalNodes>
        0 -1 126536 -69223681 -1613131778 -652739089 -1342513172
        -201591913 1610599252 -134325321 2009035620</internalNodes>
      <leafValues>
        -8.0857068300247192e-01 4.5121628046035767e-01</leafValues></_></weakClassifiers></stage8>
</opencv_storage>
