<?xml version="1.0"?>
<opencv_storage>
<stage5>
  <maxWeakCount>4</maxWeakCount>
  <stageThreshold>-1.8545155525207520e+00</stageThreshold>
  <weakClassifiers>
    <_>
      <internalNodes>
        0 -1 392365 -33 -8390817 -6553601 -136314889 -4195378 -12845217
        -262145 -1</internalNodes>
      <leafValues>
        -8.4183579683303833e-01 7.6528120040893555e-01</leafValues></_>
    <_>
      <internalNodes>
        0 -1 24142 -33554689 -67373057 2115239771 2064908287 -41121
        928734055 -8978593 2004090879</internalNodes>
      <leafValues>
        -8.5651218891143799e-01 4.7721028327941895e-01</leafValues></_>
    <_>
      <internalNodes>
        0 -1 409121 -1342439429 -1414546775 -2228239 -144703523 -65
        -1879048229 1577055741 -838877185</internalNodes>
      <leafValues>
        -6.9881117343902588e-01 5.7360774278640747e-01</leafValues></_>
    <_>
      <internalNodes>
        0 -1 6667 -337 -352351537 -77605161 -203423777 -278396929
        1112265471 1903155014 1946154495</internalNodes>
      <leafValues>
        -7.1770173311233521e-01 5.4264360666275024e-01</leafValues></_></weakClassifiers></stage5>
</opencv_storage>
