<?xml version="1.0"?>
<opencv_storage>
<stage5>
  <maxWeakCount>6</maxWeakCount>
  <stageThreshold>-2.1153721809387207e+00</stageThreshold>
  <weakClassifiers>
    <_>
      <internalNodes>
        0 -1 10006 6.5535388886928558e-02</internalNodes>
      <leafValues>
        -9.2025887966156006e-01 4.7261905670166016e-01</leafValues></_>
    <_>
      <internalNodes>
        0 -1 429 9.7434177994728088e-02</internalNodes>
      <leafValues>
        -7.7204620838165283e-01 6.2286067008972168e-01</leafValues></_>
    <_>
      <internalNodes>
        0 -1 14062 9.5760568976402283e-02</internalNodes>
      <leafValues>
        -6.7666691541671753e-01 5.3510284423828125e-01</leafValues></_>
    <_>
      <internalNodes>
        0 -1 11992 6.9308495149016380e-03</internalNodes>
      <leafValues>
        4.2919611930847168e-01 -6.9170981645584106e-01</leafValues></_>
    <_>
      <internalNodes>
        0 -1 5078 3.5819418728351593e-02</internalNodes>
      <leafValues>
        -5.1777082681655884e-01 5.6398022174835205e-01</leafValues></_>
    <_>
      <internalNodes>
        0 -1 18077 3.8878154009580612e-03</internalNodes>
      <leafValues>
        3.4217455983161926e-01 -7.1961331367492676e-01</leafValues></_></weakClassifiers></stage5>
</opencv_storage>
