<?xml version="1.0"?>
<opencv_storage>
<stage9>
  <maxWeakCount>10</maxWeakCount>
  <stageThreshold>-2.5169897079467773e+00</stageThreshold>
  <weakClassifiers>
    <_>
      <internalNodes>
        0 -1 6743 1.2784674763679504e-01</internalNodes>
      <leafValues>
        -8.5254693031311035e-01 5.6797331571578979e-01</leafValues></_>
    <_>
      <internalNodes>
        0 -1 10215 5.6479912251234055e-02</internalNodes>
      <leafValues>
        -6.9170606136322021e-01 4.2029398679733276e-01</leafValues></_>
    <_>
      <internalNodes>
        0 -1 2370 1.0006761550903320e-01</internalNodes>
      <leafValues>
        -5.3198510408401489e-01 4.7180792689323425e-01</leafValues></_>
    <_>
      <internalNodes>
        0 -1 6089 2.1506729535758495e-03</internalNodes>
      <leafValues>
        3.4577795863151550e-01 -5.9721940755844116e-01</leafValues></_>
    <_>
      <internalNodes>
        0 -1 10760 3.0433528125286102e-02</internalNodes>
      <leafValues>
        -5.6423550844192505e-01 3.6266943812370300e-01</leafValues></_>
    <_>
      <internalNodes>
        0 -1 17723 4.3327016755938530e-03</internalNodes>
      <leafValues>
        3.1131404638290405e-01 -5.6523388624191284e-01</leafValues></_>
    <_>
      <internalNodes>
        0 -1 9175 8.9297480881214142e-03</internalNodes>
      <leafValues>
        3.0900838971138000e-01 -4.8294574022293091e-01</leafValues></_>
    <_>
      <internalNodes>
        0 -1 12764 2.4479538202285767e-02</internalNodes>
      <leafValues>
        -5.7828891277313232e-01 2.1695068478584290e-01</leafValues></_>
    <_>
      <internalNodes>
        0 -1 6194 9.1881807893514633e-03</internalNodes>
      <leafValues>
        3.2036000490188599e-01 -4.3747124075889587e-01</leafValues></_>
    <_>
      <internalNodes>
        0 -1 6081 8.0782594159245491e-03</internalNodes>
      <leafValues>
        1.8595054745674133e-01 -6.0790956020355225e-01</leafValues></_></weakClassifiers></stage9>
</opencv_storage>
