<?xml version="1.0"?>
<opencv_storage>
<stage4>
  <maxWeakCount>6</maxWeakCount>
  <stageThreshold>-2.1442439556121826e+00</stageThreshold>
  <weakClassifiers>
    <_>
      <internalNodes>
        0 -1 5685 1.2005098164081573e-01</internalNodes>
      <leafValues>
        -8.9697122573852539e-01 6.7531502246856689e-01</leafValues></_>
    <_>
      <internalNodes>
        0 -1 14850 6.1843223869800568e-02</internalNodes>
      <leafValues>
        -8.3577442169189453e-01 4.9685677886009216e-01</leafValues></_>
    <_>
      <internalNodes>
        0 -1 18019 4.6482826583087444e-03</internalNodes>
      <leafValues>
        5.2469587326049805e-01 -7.1799230575561523e-01</leafValues></_>
    <_>
      <internalNodes>
        0 -1 10901 2.9657453298568726e-02</internalNodes>
      <leafValues>
        -6.4256596565246582e-01 5.2567392587661743e-01</leafValues></_>
    <_>
      <internalNodes>
        0 -1 18045 2.1703029051423073e-02</internalNodes>
      <leafValues>
        -6.3286107778549194e-01 4.4910305738449097e-01</leafValues></_>
    <_>
      <internalNodes>
        0 -1 13581 4.7006225213408470e-03</internalNodes>
      <leafValues>
        4.1368126869201660e-01 -6.1104398965835571e-01</leafValues></_></weakClassifiers></stage4>
</opencv_storage>
