<?xml version="1.0"?>
<opencv_storage>
<stage9>
  <maxWeakCount>5</maxWeakCount>
  <stageThreshold>-2.5605683326721191e+00</stageThreshold>
  <weakClassifiers>
    <_>
      <internalNodes>
        0 -1 532 -1 -2097185 -17039617 -218103841 -4194305 -9442837
        -4195329 -1</internalNodes>
      <leafValues>
        -8.6482894420623779e-01 7.3897707462310791e-01</leafValues></_>
    <_>
      <internalNodes>
        0 -1 79 -8389633 -1298 -1207962625 -513 -10485777 -11534522
        2002253823 -8388609</internalNodes>
      <leafValues>
        -6.9099330902099609e-01 6.0631126165390015e-01</leafValues></_>
    <_>
      <internalNodes>
        0 -1 1479 -536875265 -1951408196 -553648783 -2105475 -517
        -1879048197 -1780515587 -838861313</internalNodes>
      <leafValues>
        -6.0951876640319824e-01 5.1899445056915283e-01</leafValues></_>
    <_>
      <internalNodes>
        0 -1 1515 -1108426838 -1356333144 -16778336 -1347422431
        1006632959 -1887436801 -704653852 -838871553</internalNodes>
      <leafValues>
        -7.7976620197296143e-01 3.7641307711601257e-01</leafValues></_>
    <_>
      <internalNodes>
        0 -1 1326 -139795 -293605921 -65554 1870626589 -201459460
        -67108865 -76152835 993550175</internalNodes>
      <leafValues>
        -7.7164030075073242e-01 3.3204066753387451e-01</leafValues></_></weakClassifiers></stage9>
</opencv_storage>
