<?xml version="1.0"?>
<opencv_storage>
<cascade>
  <stageType>BOOST</stageType>
  <featureType>LBP</featureType>
  <height>32</height>
  <width>32</width>
  <stageParams>
    <boostType>GAB</boostType>
    <minHitRate>9.9500000476837158e-01</minHitRate>
    <maxFalseAlarm>5.0000000000000000e-01</maxFalseAlarm>
    <weightTrimRate>9.4999999999999996e-01</weightTrimRate>
    <maxDepth>1</maxDepth>
    <maxWeakCount>100</maxWeakCount></stageParams>
  <featureParams>
    <maxCatCount>256</maxCatCount>
    <featSize>1</featSize></featureParams>
  <stageNum>11</stageNum>
  <stages>
    <!-- stage 0 -->
    <_>
      <maxWeakCount>3</maxWeakCount>
      <stageThreshold>-1.0665384531021118e+00</stageThreshold>
      <weakClassifiers>
        <_>
          <internalNodes>
            0 -1 43 -8193 -8193 -71303169 -1 -1114113 -4193 -66561
            -4521985</internalNodes>
          <leafValues>
            -8.9901715517044067e-01 8.8863462209701538e-01</leafValues></_>
        <_>
          <internalNodes>
            0 -1 26 521690621 -1073742851 2041839583 -8705 2147376127
            -16386 -69279745 -65537</internalNodes>
          <leafValues>
            -8.6169111728668213e-01 6.6630166769027710e-01</leafValues></_>
        <_>
          <internalNodes>
            0 -1 29 -254467 -41473 -614729729 2145091575 -25428993 -4385
            -33882113 -1162338824</internalNodes>
          <leafValues>
            -7.6877629756927490e-01 6.9416981935501099e-01</leafValues></_></weakClassifiers></_>
    <!-- stage 1 -->
    <_>
      <maxWeakCount>4</maxWeakCount>
      <stageThreshold>-1.8851751089096069e+00</stageThreshold>
      <weakClassifiers>
        <_>
          <internalNodes>
            0 -1 11 -67108865 -2100229 -541852161 -9729 -39060481
            -6576389 -67108929 2147483647</internalNodes>
          <leafValues>
            -9.4257587194442749e-01 6.7487686872482300e-01</leafValues></_>
        <_>
          <internalNodes>
            0 -1 1 -257 -6296597 -108536321 -8398381 -359792658 -1852746
            -686819889 -10487849</internalNodes>
          <leafValues>
            -8.1566220521926880e-01 6.9412660598754883e-01</leafValues></_>
        <_>
          <internalNodes>
            0 -1 33 -266550 -148898750 -874005569 2004868831 -3148894
            830992385 -136446993 -173015857</internalNodes>
          <leafValues>
            -7.6668959856033325e-01 6.4976900815963745e-01</leafValues></_>
        <_>
          <internalNodes>
            0 -1 8 -131845 -538969361 990019257 2067528159 -1177846177
            1935345727 -1150550401 1602224127</internalNodes>
          <leafValues>
            -7.5447946786880493e-01 6.3975256681442261e-01</leafValues></_></weakClassifiers></_>
    <!-- stage 2 -->
    <_>
      <maxWeakCount>4</maxWeakCount>
      <stageThreshold>-1.7781034708023071e+00</stageThreshold>
      <weakClassifiers>
        <_>
          <internalNodes>
            0 -1 17 -1 -9729 1564114143 2132530143 -3482114 -79183189
            -541393921 -4457473</internalNodes>
          <leafValues>
            -8.6492204666137695e-01 7.6362240314483643e-01</leafValues></_>
        <_>
          <internalNodes>
            0 -1 2 -263169 -1573166 -606347777 -12591117 -343344146
            -1573637 -49938449 -10487817</internalNodes>
          <leafValues>
            -7.9965245723724365e-01 6.6290032863616943e-01</leafValues></_>
        <_>
          <internalNodes>
            0 -1 36 -4195078 464228536 366962920 -1646273043 -1146356741
            1004270783 55038463 -536880641</internalNodes>
          <leafValues>
            -7.3433250188827515e-01 6.3010060787200928e-01</leafValues></_>
        <_>
          <internalNodes>
            0 -1 45 -27263378 -69232549 -132908801 -252210209 -99889297
            -342917062 -343151617 -757080161</internalNodes>
          <leafValues>
            -6.9261741638183594e-01 6.2080347537994385e-01</leafValues></_></weakClassifiers></_>
    <!-- stage 3 -->
    <_>
      <maxWeakCount>5</maxWeakCount>
      <stageThreshold>-1.2757847309112549e+00</stageThreshold>
      <weakClassifiers>
        <_>
          <internalNodes>
            0 -1 4 -262145 -9217 -11273217 -11149921 -12582913 -3174773
            -9175041 -8389121</internalNodes>
          <leafValues>
            -8.4536862373352051e-01 8.0330580472946167e-01</leafValues></_>
        <_>
          <internalNodes>
            0 -1 48 -2361601 -134227725 -1039875329 -218169633 -18900053
            -68041170 -387186945 -16844033</internalNodes>
          <leafValues>
            -7.2870725393295288e-01 6.7473590373992920e-01</leafValues></_>
        <_>
          <internalNodes>
            0 -1 13 -135266322 -286262610 -141296668 -16457 -812912641
            1120903679 1476130807 -671091721</internalNodes>
          <leafValues>
            -7.3669910430908203e-01 5.7084918022155762e-01</leafValues></_>
        <_>
          <internalNodes>
            0 -1 15 -201326977 -134218762 -4458497 -1077968937
            -570426369 -1477444205 -1025 872381431</internalNodes>
          <leafValues>
            -8.5376012325286865e-01 4.8988342285156250e-01</leafValues></_>
        <_>
          <internalNodes>
            0 -1 22 -1424826375 -2820657 -788278433 -134388737
            -1080034305 -89937717 802160639 -1610639899</internalNodes>
          <leafValues>
            -6.7857927083969116e-01 5.8120214939117432e-01</leafValues></_></weakClassifiers></_>
    <!-- stage 4 -->
    <_>
      <maxWeakCount>4</maxWeakCount>
      <stageThreshold>-1.8055386543273926e+00</stageThreshold>
      <weakClassifiers>
        <_>
          <internalNodes>
            0 -1 9 -1 -801 -537010689 -8193 -129 -12584641 -1048577
            -1025</internalNodes>
          <leafValues>
            -8.6635857820510864e-01 7.6434582471847534e-01</leafValues></_>
        <_>
          <internalNodes>
            0 -1 44 -67109041 -8321 -202899729 -226493441 -2237
            1930950247 -2099201 -17</internalNodes>
          <leafValues>
            -6.9670796394348145e-01 7.2204458713531494e-01</leafValues></_>
        <_>
          <internalNodes>
            0 -1 5 -1048705 -1048578 -2049 -527386 240046067 -4098
            402617847 2147317751</internalNodes>
          <leafValues>
            -7.4738460779190063e-01 5.5473476648330688e-01</leafValues></_>
        <_>
          <internalNodes>
            0 -1 30 -50373537 -43173 -6291969 2139060095 -100671489
            -67147265 -86507777 993533311</internalNodes>
          <leafValues>
            -7.8626233339309692e-01 5.0491255521774292e-01</leafValues></_></weakClassifiers></_>
    <!-- stage 5 -->
    <_>
      <maxWeakCount>4</maxWeakCount>
      <stageThreshold>-1.7764399051666260e+00</stageThreshold>
      <weakClassifiers>
        <_>
          <internalNodes>
            0 -1 42 -1 -1 -335544376 -1050625 -67109889 -682627413
            1610600957 -1</internalNodes>
          <leafValues>
            -8.3538317680358887e-01 7.5308644771575928e-01</leafValues></_>
        <_>
          <internalNodes>
            0 -1 10 -1 -9729 -69214465 -134480387 -71344273 -75531973
            -18874369 -8388613</internalNodes>
          <leafValues>
            -7.6196986436843872e-01 6.6367244720458984e-01</leafValues></_>
        <_>
          <internalNodes>
            0 -1 7 -2049 -353635601 -673745097 -134217733 -536870913
            1124071903 -134219801 2011168734</internalNodes>
          <leafValues>
            -6.5962529182434082e-01 5.6185144186019897e-01</leafValues></_>
        <_>
          <internalNodes>
            0 -1 37 -7475285 -1360003126 1860163490 -353370113 -4249
            -202650625 -89456649 -352321537</internalNodes>
          <leafValues>
            -7.4093836545944214e-01 4.9349308013916016e-01</leafValues></_></weakClassifiers></_>
    <!-- stage 6 -->
    <_>
      <maxWeakCount>5</maxWeakCount>
      <stageThreshold>-2.3559165000915527e+00</stageThreshold>
      <weakClassifiers>
        <_>
          <internalNodes>
            0 -1 28 -2098691 -3 -710937091 -1025 -4456449 -1145308229
            -574883329 -536871937</internalNodes>
          <leafValues>
            -8.4694653749465942e-01 7.4444442987442017e-01</leafValues></_>
        <_>
          <internalNodes>
            0 -1 14 -1 -83888149 -19997490 -229441537 -8660129
            1853094203 -109576577 -134217809</internalNodes>
          <leafValues>
            -7.1730065345764160e-01 5.6091809272766113e-01</leafValues></_>
        <_>
          <internalNodes>
            0 -1 20 -1342558213 -1075398662 -35790857 -10486541
            -1946304513 -270955777 94234623 -537046539</internalNodes>
          <leafValues>
            -6.7664986848831177e-01 5.5639386177062988e-01</leafValues></_>
        <_>
          <internalNodes>
            0 -1 47 -1346650181 803797480 -1896488964 -157187 466616319
            -1343231045 536827383 -675292679</internalNodes>
          <leafValues>
            -6.8981510400772095e-01 5.2120476961135864e-01</leafValues></_>
        <_>
          <internalNodes>
            0 -1 39 2146434794 1472065418 265246144 -268435474
            -335546421 134217167 -982522649 -402653201</internalNodes>
          <leafValues>
            -6.5824794769287109e-01 5.3835844993591309e-01</leafValues></_></weakClassifiers></_>
    <!-- stage 7 -->
    <_>
      <maxWeakCount>5</maxWeakCount>
      <stageThreshold>-2.4809765815734863e+00</stageThreshold>
      <weakClassifiers>
        <_>
          <internalNodes>
            0 -1 34 -2097185 -8391297 -1 -1 -67108913 -8389797 -1 -1</internalNodes>
          <leafValues>
            -8.1936204433441162e-01 8.2851988077163696e-01</leafValues></_>
        <_>
          <internalNodes>
            0 -1 16 2113404671 -2158081 2142593023 -67372577 -1415877601
            -75535553 -549797889 -8392705</internalNodes>
          <leafValues>
            -6.8762916326522827e-01 5.7743906974792480e-01</leafValues></_>
        <_>
          <internalNodes>
            0 -1 18 -71169 -4282889 -167903745 -268574721 -269238337
            -1065985 -2557953 525143893</internalNodes>
          <leafValues>
            -7.1560847759246826e-01 4.8485884070396423e-01</leafValues></_>
        <_>
          <internalNodes>
            0 -1 38 -22 2075131675 -420496926 -403702785 -2494
            1652553086 -354422025 -167780353</internalNodes>
          <leafValues>
            -7.1239578723907471e-01 4.7357931733131409e-01</leafValues></_>
        <_>
          <internalNodes>
            0 -1 25 -4449 2012185834 -1113605477 -2099525 -1075871762
            -404751825 -1094731093 934273195</internalNodes>
          <leafValues>
            -7.4644845724105835e-01 4.4443264603614807e-01</leafValues></_></weakClassifiers></_>
    <!-- stage 8 -->
    <_>
      <maxWeakCount>5</maxWeakCount>
      <stageThreshold>-1.3442920446395874e+00</stageThreshold>
      <weakClassifiers>
        <_>
          <internalNodes>
            0 -1 32 -1 -134217777 -264193 -2098337 -134218753 -524289
            -71303173 -3145761</internalNodes>
          <leafValues>
            -8.2120192050933838e-01 7.8809106349945068e-01</leafValues></_>
        <_>
          <internalNodes>
            0 -1 46 -1078198273 -1616184582 -2114315 -667916 1073740799
            -1073742913 394255871 -10753</internalNodes>
          <leafValues>
            -7.1689242124557495e-01 5.2913820743560791e-01</leafValues></_>
        <_>
          <internalNodes>
            0 -1 3 -536870945 -1342440717 2065432440 2134636535
            -69206017 1919152825 1602223998 2004090879</internalNodes>
          <leafValues>
            -7.2590517997741699e-01 5.0654762983322144e-01</leafValues></_>
        <_>
          <internalNodes>
            0 -1 40 -9985 -33596833 -2103297 1935633759 -118563253
            -25166978 -83890189 809172863</internalNodes>
          <leafValues>
            -8.0790716409683228e-01 3.9346215128898621e-01</leafValues></_>
        <_>
          <internalNodes>
            0 -1 23 -579277840 -539100804 2147155967 2147435883
            431541736 -4216598 -98305 -1342235650</internalNodes>
          <leafValues>
            -6.6354417800903320e-01 5.2624535560607910e-01</leafValues></_></weakClassifiers></_>
    <!-- stage 9 -->
    <_>
      <maxWeakCount>5</maxWeakCount>
      <stageThreshold>-2.4580087661743164e+00</stageThreshold>
      <weakClassifiers>
        <_>
          <internalNodes>
            0 -1 19 -262157 -67108873 -134227969 -2105865 -5506053
            -2097409 -5505025 -542384145</internalNodes>
          <leafValues>
            -8.6110562086105347e-01 6.1891317367553711e-01</leafValues></_>
        <_>
          <internalNodes>
            0 -1 31 -46141443 -574619655 1572599037 -9 -71303233
            -1883242529 369087999 536870907</internalNodes>
          <leafValues>
            -7.2307902574539185e-01 4.7940805554389954e-01</leafValues></_>
        <_>
          <internalNodes>
            0 -1 0 -4849685 -271582801 -4718593 -10249 -269484033
            -24117249 1334835149 1474164727</internalNodes>
          <leafValues>
            -6.8758869171142578e-01 4.7579643130302429e-01</leafValues></_>
        <_>
          <internalNodes>
            0 -1 35 -2359509 -1343225942 -20319350 -287309827 -1049633
            -536876803 -17041433 -453050369</internalNodes>
          <leafValues>
            -7.0656335353851318e-01 4.5687395334243774e-01</leafValues></_>
        <_>
          <internalNodes>
            0 -1 27 1543476408 1564473273 1421726964 -302006305
            1873473523 1034681579 -624233011 -1611674981</internalNodes>
          <leafValues>
            -6.8215912580490112e-01 4.7526228427886963e-01</leafValues></_></weakClassifiers></_>
    <!-- stage 10 -->
    <_>
      <maxWeakCount>5</maxWeakCount>
      <stageThreshold>-2.2689793109893799e+00</stageThreshold>
      <weakClassifiers>
        <_>
          <internalNodes>
            0 -1 6 -1 -3586 -212123649 -10246 -129040385 -3212034
            2139095039 -513</internalNodes>
          <leafValues>
            -8.3133447170257568e-01 6.9526863098144531e-01</leafValues></_>
        <_>
          <internalNodes>
            0 -1 41 -33 -10485921 -662700033 -750945281 -186 1465909023
            -87031813 -144965697</internalNodes>
          <leafValues>
            -6.6057324409484863e-01 5.6329488754272461e-01</leafValues></_>
        <_>
          <internalNodes>
            0 -1 12 -131073 -2561 -1360003345 -218112001 -1081777
            -27297153 -16777217 -42008577</internalNodes>
          <leafValues>
            -6.3179367780685425e-01 5.7368779182434082e-01</leafValues></_>
        <_>
          <internalNodes>
            0 -1 21 797703979 -275907152 -102761641 -1312 -1355809793
            -807666689 132511725 -570440203</internalNodes>
          <leafValues>
            -6.7600452899932861e-01 4.4849246740341187e-01</leafValues></_>
        <_>
          <internalNodes>
            0 -1 24 -1073876739 -2160291 -67706913 -805475491 -538707204
            -2115073 -1096532391 991500607</internalNodes>
          <leafValues>
            -6.7475479841232300e-01 4.4187176227569580e-01</leafValues></_></weakClassifiers></_></stages>
  <features>
    <_>
      <rect>
        0 0 4 7</rect></_>
    <_>
      <rect>
        0 0 6 7</rect></_>
    <_>
      <rect>
        0 0 7 6</rect></_>
    <_>
      <rect>
        0 10 4 7</rect></_>
    <_>
      <rect>
        0 20 7 4</rect></_>
    <_>
      <rect>
        1 2 7 3</rect></_>
    <_>
      <rect>
        1 7 7 3</rect></_>
    <_>
      <rect>
        1 10 3 3</rect></_>
    <_>
      <rect>
        1 17 4 5</rect></_>
    <_>
      <rect>
        1 24 3 2</rect></_>
    <_>
      <rect>
        1 26 5 2</rect></_>
    <_>
      <rect>
        2 5 10 9</rect></_>
    <_>
      <rect>
        2 24 3 2</rect></_>
    <_>
      <rect>
        3 10 3 3</rect></_>
    <_>
      <rect>
        4 17 2 3</rect></_>
    <_>
      <rect>
        6 2 8 10</rect></_>
    <_>
      <rect>
        6 29 3 1</rect></_>
    <_>
      <rect>
        7 20 3 4</rect></_>
    <_>
      <rect>
        8 0 6 3</rect></_>
    <_>
      <rect>
        8 2 3 6</rect></_>
    <_>
      <rect>
        8 3 4 2</rect></_>
    <_>
      <rect>
        8 8 2 3</rect></_>
    <_>
      <rect>
        9 5 1 2</rect></_>
    <_>
      <rect>
        11 20 4 4</rect></_>
    <_>
      <rect>
        13 0 5 4</rect></_>
    <_>
      <rect>
        13 7 6 7</rect></_>
    <_>
      <rect>
        14 19 2 3</rect></_>
    <_>
      <rect>
        14 20 5 3</rect></_>
    <_>
      <rect>
        16 22 5 3</rect></_>
    <_>
      <rect>
        18 3 2 2</rect></_>
    <_>
      <rect>
        19 2 3 3</rect></_>
    <_>
      <rect>
        19 23 4 3</rect></_>
    <_>
      <rect>
        20 0 4 7</rect></_>
    <_>
      <rect>
        20 6 4 6</rect></_>
    <_>
      <rect>
        20 9 4 2</rect></_>
    <_>
      <rect>
        20 16 2 2</rect></_>
    <_>
      <rect>
        20 18 3 4</rect></_>
    <_>
      <rect>
        21 15 2 2</rect></_>
    <_>
      <rect>
        22 13 3 3</rect></_>
    <_>
      <rect>
        22 14 3 4</rect></_>
    <_>
      <rect>
        23 2 3 4</rect></_>
    <_>
      <rect>
        23 9 3 3</rect></_>
    <_>
      <rect>
        24 16 2 4</rect></_>
    <_>
      <rect>
        25 0 2 4</rect></_>
    <_>
      <rect>
        25 11 2 3</rect></_>
    <_>
      <rect>
        26 6 2 1</rect></_>
    <_>
      <rect>
        26 20 2 4</rect></_>
    <_>
      <rect>
        26 23 2 3</rect></_>
    <_>
      <rect>
        29 8 1 1</rect></_></features></cascade>
</opencv_storage>
